0.698714434341378
0.700830505971957
0.702627150472085
0.704287953612248
0.705991250791828
0.707881605645099
0.709730359137237
0.712298897583895
0.715884269869012
0.718478378565329
0.720770078892421
0.722718858100183
0.725764116788977
0.728229494413969
0.729777442323676
0.730989635062044
0.732258281546212
0.733986108115247
0.735495696732916
0.737028642920191
0.738357231288271
0.739808267734744
0.741314289155209
0.742983516983693
0.74483257515908
0.746337116479799
0.748923117617937
0.75406484074332
0.759415319561308
0.760977426053804
0.760220594533406
0.745593183634094
0.721470363559305
0.659635034432934
0.629518466412951
0.615716393959293
0.614629210479262
0.624992661975891
0.588154299403708
0.597046763479551
0.528792130067476
0.312252680404213
0.200307800111753
-0.0237645566641003
0.0744285229629868
-0.10665621002066
-0.182960944445122
-0.231435485634413
-0.27391327951916
-0.333216007931126
-0.425651890725595
-0.509907008614883
-0.588943946230682
-0.677971912894516
-0.709649296801972
-0.76763445381707
-0.809464629389868
-0.860530971210253
-0.917768275543791
-0.962833591286283
-1.00638392654794
-1.04044040057473
-1.07385589545362
-1.09676673853365
-1.11482290815631
-1.13325967122796
-1.13873250720987
-1.12908626922892
-1.12338893966131
-1.11943580162409
-1.11915937827395
-1.12437484806183
-1.13131439165681
-1.14072358891915
-1.14375879999074
-1.13479455895377
-1.12664385553922
-1.121758069907
-1.11642399941424
-1.110916448711
-1.10978652310665
-1.11086712922236
-1.10608179313779
-1.0911167608013
-1.08131087108485
-1.07234658787781
-1.07137593212984
-1.06851642061755
-1.06735202215789
-1.06306545848402
-1.05731296152811
-1.05461720823706
-1.05458543571581
-1.05265142540129
-1.05290840787409
-1.05122901593818
-1.04988011413349
-1.04952666261974
-1.04808444474106
-1.05003737295963
-1.05106058261082
-1.04942645171375
-1.04955351490956
-1.02538776766932
-1.00876923845329
-0.99686788718165
-0.987413557224979
-0.973767874569951
-0.959547855562696
-0.94572794150457
-0.933351041689624
-0.923978171248215
-0.911115003505415
-0.900328579732412
-0.886454347706431
-0.874685663312858
-0.870717905106866
-0.86751322243623
-0.865097656825627
-0.8621177931544
-0.857961583033249
-0.85377309863123
-0.849618118832248
-0.846144333069541
-0.839725640871948
-0.83591626660015
-0.832833608720044
-0.829106130832259
-0.826191897733264
-0.824427101961896
-0.821830961160608
-0.819413773764646
-0.816174100024607
-0.811627964887441
-0.807261609277277
-0.802359092920995
-0.797727863018981
-0.792114248745797
-0.787048924645855
-0.782281520555878
-0.777799756029834
-0.773477185738283
-0.769229433819153
-0.76504768188019
-0.760751711992145
-0.755724988470384
-0.751448814993935
-0.746389968044334
-0.740029664135417
-0.73490796396867
-0.730016704988441
-0.724289399105787
-0.718537682545787
-0.71216796288245
-0.706343028038241
-0.700479905549615
-0.694443331018781
-0.68791476075168
-0.681566928818575
-0.672236413534104
-0.662312478844514
-0.6512466424359
-0.636722132841741
-0.630741496237125
-0.62470719911978
-0.620507755596662
-0.6160545834525
-0.612699835160495
-0.609203222974314
-0.604815595686941
-0.60052197671662
-0.595692402315895
-0.591067263343387
-0.585513513890007
-0.579773517812757
-0.57259665108102
-0.566507037174642
-0.561172777887317
-0.556078894025514
-0.552249740692604
-0.548841228043625
-0.544632914631861
-0.540327678969187
-0.536409256375495
-0.533022071924048
-0.52979973408739
-0.526888161324873
-0.524595215703059
-0.52252173595167
-0.520224518929052
-0.518162758802231
-0.515749157908136
-0.513092588762866
-0.50926641285765
-0.505870858928299
-0.502792611663928
-0.500200840551596
-0.4975910017233
-0.49322967191029
-0.488743935070903
-0.479709431632613
-0.473617408305375
-0.466494968577208
-0.461109949547608
-0.457977877231726
-0.456838747995923
-0.45555759702591
-0.454798689526226
-0.455082549263613
-0.455077772032491
-0.454733287115823
-0.453745560830997
-0.453226947387616
-0.452500399380968
-0.451635790672533
-0.450534410869571
-0.449610676617353
-0.448474574837875
-0.447347499743441
-0.446354628124066
-0.445337812098547
-0.444385125132603
-0.443409738633412
-0.442293027331595
-0.441106412804253
-0.439837019149461
-0.438202803770383
-0.436769547545475
-0.435163247314369
-0.433380336172685
-0.431115201873233
-0.428067315955239
-0.425391250229646
-0.42302966205005
-0.420698752727598
-0.418096329118914
-0.41493707867111
-0.411648751079502
-0.409132227844067
-0.406744429572501
-0.404050019879601
-0.40157114914361
-0.399208113654524
-0.396127218623684
-0.393312146579002
-0.390788549518956
-0.38903956918442
-0.387383802307784
-0.384414261894763
-0.381972804671638
-0.379594179800236
-0.376762766934926
-0.373440275766644
-0.370256922840721
-0.367654035302555
-0.364758848327397
-0.361605717861393
-0.357919810088937
-0.354011978566016
-0.344753511535457
-0.33811086512035
-0.330683281018933
-0.324176760294918
-0.320016605468844
-0.31659436139472
-0.313668522547582
-0.310311021854866
-0.307026574164967
-0.303505458668796
-0.299468468188052
-0.295480185294227
-0.291691173830483
-0.287232577146718
-0.282683366326607
-0.278041616356936
-0.273476771490336
-0.268469497672083
-0.26458163255583
-0.261302249660097
-0.25645258409577
-0.253480584609123
-0.251040547247388
-0.248262199731663
-0.24525087241653
-0.243000019197304
-0.242068235391237
-0.241051706500031
-0.239774802598559
-0.238443134042686
-0.237106343045614
-0.235622250231106
-0.233628221574964
-0.231657443297573
-0.230069213918424
-0.227989231735163
-0.226229195179487
-0.224788563774467
-0.223169542006516
-0.22152496304202
-0.220381310300643
-0.219468060718705
-0.218557361546512
-0.218031012795179
-0.217555612247615
-0.217073428002801
-0.216689115081167
-0.216205952568356
-0.215772377561592
-0.215329095325264
-0.214839743039461
-0.214324593631518
-0.213783799324412
-0.213167639862117
-0.212609717411886
-0.21198655681081
-0.211275369811849
-0.210506783335481
-0.209907206670352
-0.209124130785765
-0.208467335479651
-0.207606282676412
-0.20671970947525
-0.205848905034338
-0.204944406470405
-0.203856814671599
-0.202847458321677
-0.20160642413062
-0.200571423999607
-0.19963572955594
-0.198887364234227
-0.198017802687223
-0.196735860675281
-0.194044838912704
-0.192880029974505
-0.19200266412548
-0.190764174586317
-0.189351635850048
-0.187451063524233
-0.186041629607271
-0.184668991599731
-0.183625386297845
-0.182492421230036
-0.18151906439894
-0.180697069387186
-0.179982888434984
-0.179107322712578
-0.178081473211613
-0.176887616563746
-0.175889847235814
-0.174845983059388
-0.173929412488522
-0.172844830239519
-0.172102005399143
-0.171389093029935
-0.170538477715343
-0.169571224051149
-0.168733315782284
-0.168022037124008
-0.166980963370874
-0.166076479612501
-0.165322636990357
-0.164633998857281
-0.163941359967079
-0.163230105485828
-0.162472193604133
-0.161678400316939
-0.160832422322937
-0.159970745628036
-0.159124013172494
-0.158248808236168
-0.157303779460213
-0.156132947854823
-0.155220592430496
-0.154238877483005
-0.153085368311202
-0.151848743801727
-0.150566325442943
-0.149093896837597
-0.14683397525013
-0.145390215802806
-0.143988313953198
-0.142639071462369
-0.14139735749138
-0.139979819187545
-0.138242095579002
-0.136780707003523
-0.135370018935729
-0.133784969746926
-0.13200951551981
-0.130556049016059
-0.129066328169105
-0.127653223013362
-0.126343548730689
-0.124846871111652
-0.123366706175437
-0.12194298169254
-0.120596283933183
-0.119228753899079
-0.117827034060291
-0.116125540363278
-0.114145059633094
-0.112002367960856
-0.110185684879224
-0.108496579053422
-0.106628033215453
-0.104910967946695
-0.102925697126087
-0.101314622439917
-0.0996664950679051
-0.0979090319555438
-0.0961890846430489
-0.0944155737617041
-0.0926397606467445
-0.0903757407857101
-0.0880436262581346
-0.0857127570585912
-0.0829762772806604
-0.0803230669143376
-0.0776129126442971
-0.0754261735224007
-0.0732225917896556
-0.0707292663498346
-0.0668768935953526
-0.0641603597001314
-0.0619371870173351
-0.0600718554860458
-0.0581968466690458
-0.0561822113697542
-0.0535529646644828
-0.0509469425749498
-0.0484024497739384
-0.0462745410177778
-0.043943162922351
-0.0419291866594222
-0.0399524879651015
-0.0380925170801162
-0.0362348039914449
-0.0343222833820903
-0.0324653340766503
-0.0308407194219975
-0.0293602585307424
-0.027809508666035
-0.0260888035742667
-0.0245018081022657
-0.0229755063219205
-0.0215143858233745
-0.0200016198004708
-0.0186796665752983
-0.0173788985069882
-0.0158492630151567
-0.0143164171346061
-0.0128099601778671
-0.0112907820009238
-0.0099156922046916
-0.00859279384547316
-0.00712224525879653
-0.00552249099513956
-0.00381230517524764
-0.00199767448473642
-9.58296041822536e-05
0.00164487651817113
0.00331471502248709
0.0051146221485007
0.00694725746101386
0.00923200487101109
0.011491735519112
0.0139430277108072
0.0163314654202818
0.0186599818436863
0.02091306914325
0.023893305164188
0.028365028469866
0.0329135721678145
0.0366607520381562
0.0426079841658991
0.04681540198628
0.0495914083162204
0.0519762749405329
0.0546290769120838
0.0570624539308408
0.0598256011171997
0.0630703537794201
0.0654573021451331
0.0682932980320238
0.071273538866179
0.0748130032719649
0.0778213781283221
0.0805307408932129
0.0831724963953139
0.0857208948195465
0.0881150844168734
0.0903665538413794
0.0927059863370892
0.0948608321208144
0.0968229916064954
0.0987779068210157
0.101181143640665
0.103446526687215
0.105577787723367
0.107621378967366
0.109248481109161
0.110819455328891
0.112630477205256
0.114300613535709
0.116534985026235
0.11867174448854
0.121041600867357
0.123870392232701
0.125410151194939
0.126928645612712
0.127538707203736
0.128070702742683
0.128349467344916
0.128844406537201
0.128929926132873
0.129128154425921
0.129997080659074
0.130520526313045
0.131260594713216
0.131872838872581
0.132407338082073
0.133114341098338
0.134058778521122
0.135000018988046
0.135723931589089
0.13628745783175
0.137559040948
0.138843318679939
0.139917761089627
0.141587891154017
0.141910540358299
0.142209174634148
0.142721863890705
0.14478984750491
0.146024469515127
0.14759038077819
0.149674360072831
0.15320345082778
0.155127039817349
0.157100118638351
0.159499448603467
0.162553385536671
0.166546374726753
0.169275277161259
0.170519644648238
0.171550580555256
0.172401771924394
0.173278858938071
0.174013403638399
0.17495606242082
0.175830940344771
0.176697408257228
0.177611360392976
0.178241194513997
0.179165741757684
0.180184316498417
0.181332292334863
0.182304881555743
0.183653112464432
0.185016001175145
0.186223728345035
0.187518238101626
0.189390986891174
0.191356510529013
0.192887517571646
0.194557923066573
0.196380167075196
0.197735657594543
0.199071342977518
0.200733971893578
0.202946044009984
0.204768565173427
0.207980976115895
0.210269200728327
0.212234014454695
0.215185552701533
0.217194687111219
0.218652901191921
0.218759674743808
0.220004430360464
0.220353551598275
0.221986752151262
0.22305253967981
0.223663064489237
0.223831628854299
0.223950236595376
0.22435588590606
0.224637452861822
0.226121944237695
0.226402907686568
0.226735956485008
0.227221435011925
0.227772716440429
0.228243911243454
0.228794999932022
0.229343466828514
0.22973140220559
